svm_type c_svc
kernel_type rbf
gamma 0.333333
nr_class 2
total_sv 13
rho 0.0648464
label 1 -1
nr_sv 6 7
SV
0.9046113574222848 1:1 2:0.697 3:0.46 
0.5862503293232039 1:3 2:0.634 3:0.264 
0.08518347502881782 1:4 2:0.608 3:0.318 
0.685423926482236 1:5 2:0.556 3:0.215 
0.4420750617632052 1:7 2:0.481 3:0.149 
1 1:8 2:0.437 3:0.211 
-1 1:9 2:0.666 3:0.091 
-0.3923658174187532 1:10 2:0.243 3:0.267 
-0.5621414827094697 1:12 2:0.343 3:0.099 
-0.1820582641048421 1:13 2:0.639 3:0.161 
-0.3105172744246768 1:14 2:0.657 3:0.198 
-0.4484082500512273 1:15 2:0.36 3:0.37 
-0.8080530613107785 1:17 2:0.719 3:0.103 
